<?xml version="1.0"?>
<opencv_storage>
<cascade>
  <stageType>BOOST</stageType>
  <featureType>HAAR</featureType>
  <height>24</height>
  <width>24</width>
  <stageParams>
    <boostType>GAB</boostType>
    <minHitRate>9.9500000476837158e-01</minHitRate>
    <maxFalseAlarm>5.0000000000000000e-01</maxFalseAlarm>
    <weightTrimRate>9.4999998807907104e-01</weightTrimRate>
    <maxDepth>1</maxDepth>
    <maxWeakCount>100</maxWeakCount></stageParams>
  <featureParams>
    <maxCatCount>0</maxCatCount>
    <featSize>1</featSize>
    <mode>BASIC</mode></featureParams>
  <stageNum>17</stageNum>
  <stages>
    <!-- stage 0 -->
    <_>
      <maxWeakCount>6</maxWeakCount>
      <stageThreshold>-1.4876728057861328e+00</stageThreshold>
      <weakClassifiers>
        <_>
          <internalNodes>
            0 -1 52 2.0048782229423523e-01</internalNodes>
          <leafValues>
            -8.6907023191452026e-01 5.8333331346511841e-01</leafValues></_>
        <_>
          <internalNodes>
            0 -1 11 2.3418884724378586e-02</internalNodes>
          <leafValues>
            -7.7627336978912354e-01 6.0213658958673477e-02</leafValues></_>
        <_>
          <internalNodes>
            0 -1 18 -3.9451420307159424e-03</internalNodes>
          <leafValues>
            4.0029036998748779e-01 -5.4007691144943237e-01</leafValues></_>
        <_>
          <internalNodes>
            0 -1 3 -1.3005597516894341e-02</internalNodes>
          <leafValues>
            -6.4596951007843018e-01 2.8967946767807007e-01</leafValues></_>
        <_>
          <internalNodes>
            0 -1 98 2.4939808994531631e-02</internalNodes>
          <leafValues>
            2.0478028059005737e-01 -8.8444304466247559e-01</leafValues></_>
        <_>
          <internalNodes>
            0 -1 77 4.7055110335350037e-02</internalNodes>
          <leafValues>
            -3.8234773278236389e-01 4.5602416992187500e-01</leafValues></_></weakClassifiers></_>
    <!-- stage 1 -->
    <_>
      <maxWeakCount>7</maxWeakCount>
      <stageThreshold>-1.8578152656555176e+00</stageThreshold>
      <weakClassifiers>
        <_>
          <internalNodes>
            0 -1 59 1.6929477453231812e-01</internalNodes>
          <leafValues>
            -8.4760111570358276e-01 4.2857143282890320e-01</leafValues></_>
        <_>
          <internalNodes>
            0 -1 82 -1.1160550639033318e-02</internalNodes>
          <leafValues>
            6.7755228281021118e-01 -4.9755710363388062e-01</leafValues></_>
        <_>
          <internalNodes>
            0 -1 29 -7.2160214185714722e-03</internalNodes>
          <leafValues>
            2.9303154349327087e-01 -6.8543112277984619e-01</leafValues></_>
        <_>
          <internalNodes>
            0 -1 94 -1.1452848091721535e-02</internalNodes>
          <leafValues>
            5.3270000219345093e-01 -3.0754309892654419e-01</leafValues></_>
        <_>
          <internalNodes>
            0 -1 78 2.9313212260603905e-02</internalNodes>
          <leafValues>
            -3.7442603707313538e-01 4.2421501874923706e-01</leafValues></_>
        <_>
          <internalNodes>
            0 -1 65 3.5251674707978964e-03</internalNodes>
          <leafValues>
            -2.5314986705780029e-01 5.7197743654251099e-01</leafValues></_>
        <_>
          <internalNodes>
            0 -1 15 -1.8259941134601831e-03</internalNodes>
          <leafValues>
            -7.6171958446502686e-01 2.6764988899230957e-01</leafValues></_></weakClassifiers></_>
    <!-- stage 2 -->
    <_>
      <maxWeakCount>7</maxWeakCount>
      <stageThreshold>-1.6934286355972290e+00</stageThreshold>
      <weakClassifiers>
        <_>
          <internalNodes>
            0 -1 58 1.9343903660774231e-01</internalNodes>
          <leafValues>
            -8.4630161523818970e-01 8.2352943718433380e-02</leafValues></_>
        <_>
          <internalNodes>
            0 -1 27 1.3117274641990662e-01</internalNodes>
          <leafValues>
            -4.5852187275886536e-01 5.2057045698165894e-01</leafValues></_>
        <_>
          <internalNodes>
            0 -1 38 -4.5163296163082123e-02</internalNodes>
          <leafValues>
            5.0974273681640625e-01 -3.0214223265647888e-01</leafValues></_>
        <_>
          <internalNodes>
            0 -1 32 1.1419910006225109e-02</internalNodes>
          <leafValues>
            1.9517348706722260e-01 -7.5395977497100830e-01</leafValues></_>
        <_>
          <internalNodes>
            0 -1 51 3.9195158024085686e-05</internalNodes>
          <leafValues>
            -4.5327082276344299e-01 3.1801119446754456e-01</leafValues></_>
        <_>
          <internalNodes>
            0 -1 42 -3.6030623596161604e-04</internalNodes>
          <leafValues>
            -7.7248686552047729e-01 1.3889165222644806e-01</leafValues></_>
        <_>
          <internalNodes>
            0 -1 25 -1.6957434127107263e-03</internalNodes>
          <leafValues>
            -7.3631531000137329e-01 1.7283922433853149e-01</leafValues></_></weakClassifiers></_>
    <!-- stage 3 -->
    <_>
      <maxWeakCount>7</maxWeakCount>
      <stageThreshold>-1.5422973632812500e+00</stageThreshold>
      <weakClassifiers>
        <_>
          <internalNodes>
            0 -1 118 -1.3569138944149017e-02</internalNodes>
          <leafValues>
            6.2500000000000000e-01 -8.1718462705612183e-01</leafValues></_>
        <_>
          <internalNodes>
            0 -1 96 -2.0234491676092148e-02</internalNodes>
          <leafValues>
            6.1651980876922607e-01 -4.6230101585388184e-01</leafValues></_>
        <_>
          <internalNodes>
            0 -1 128 1.5488814824493602e-05</internalNodes>
          <leafValues>
            -4.4177660346031189e-01 3.1210362911224365e-01</leafValues></_>
        <_>
          <internalNodes>
            0 -1 20 -5.9834953397512436e-02</internalNodes>
          <leafValues>
            5.1723796129226685e-01 -2.5223594903945923e-01</leafValues></_>
        <_>
          <internalNodes>
            0 -1 2 3.4222117392346263e-05</internalNodes>
          <leafValues>
            -4.2734342813491821e-01 3.0572214722633362e-01</leafValues></_>
        <_>
          <internalNodes>
            0 -1 110 4.5729283243417740e-02</internalNodes>
          <leafValues>
            -2.7289322018623352e-01 4.5288458466529846e-01</leafValues></_>
        <_>
          <internalNodes>
            0 -1 37 -3.1681036489317194e-05</internalNodes>
          <leafValues>
            3.9837193489074707e-01 -3.3341187238693237e-01</leafValues></_></weakClassifiers></_>
    <!-- stage 4 -->
    <_>
      <maxWeakCount>10</maxWeakCount>
      <stageThreshold>-1.7284691333770752e+00</stageThreshold>
      <weakClassifiers>
        <_>
          <internalNodes>
            0 -1 109 3.1249232124537230e-03</internalNodes>
          <leafValues>
            -8.0943739414215088e-01 7.5000000000000000e-01</leafValues></_>
        <_>
          <internalNodes>
            0 -1 80 2.2047527134418488e-02</internalNodes>
          <leafValues>
            -4.2529490590095520e-01 4.9794253706932068e-01</leafValues></_>
        <_>
          <internalNodes>
            0 -1 10 1.5283571556210518e-03</internalNodes>
          <leafValues>
            1.5810048580169678e-01 -6.2080526351928711e-01</leafValues></_>
        <_>
          <internalNodes>
            0 -1 55 -5.4112564772367477e-02</internalNodes>
          <leafValues>
            3.1325629353523254e-01 -3.7072515487670898e-01</leafValues></_>
        <_>
          <internalNodes>
            0 -1 124 -3.0621461337432265e-04</internalNodes>
          <leafValues>
            -6.2713247537612915e-01 2.4594387412071228e-01</leafValues></_>
        <_>
          <internalNodes>
            0 -1 46 7.1759065613150597e-03</internalNodes>
          <leafValues>
            -4.4496253132820129e-01 2.8184834122657776e-01</leafValues></_>
        <_>
          <internalNodes>
            0 -1 130 3.5921117523685098e-04</internalNodes>
          <leafValues>
            2.2563065588474274e-01 -5.5892902612686157e-01</leafValues></_>
        <_>
          <internalNodes>
            0 -1 73 -3.7341276765801013e-05</internalNodes>
          <leafValues>
            2.9154577851295471e-01 -3.6030206084251404e-01</leafValues></_>
        <_>
          <internalNodes>
            0 -1 111 2.5688975583761930e-03</internalNodes>
          <leafValues>
            1.6391603648662567e-01 -6.7127835750579834e-01</leafValues></_>
        <_>
          <internalNodes>
            0 -1 112 5.7970016496255994e-04</internalNodes>
          <leafValues>
            1.1645954847335815e-01 -7.6318603754043579e-01</leafValues></_></weakClassifiers></_>
    <!-- stage 5 -->
    <_>
      <maxWeakCount>8</maxWeakCount>
      <stageThreshold>-1.6992175579071045e+00</stageThreshold>
      <weakClassifiers>
        <_>
          <internalNodes>
            0 -1 113 2.7833424508571625e-02</internalNodes>
          <leafValues>
            -8.0180180072784424e-01 1.</leafValues></_>
        <_>
          <internalNodes>
            0 -1 92 -7.4980154633522034e-02</internalNodes>
          <leafValues>
            5.1300531625747681e-01 -4.3375870585441589e-01</leafValues></_>
        <_>
          <internalNodes>
            0 -1 115 -3.4792406950145960e-05</internalNodes>
          <leafValues>
            3.3320456743240356e-01 -3.1169581413269043e-01</leafValues></_>
        <_>
          <internalNodes>
            0 -1 39 -6.2404625350609422e-04</internalNodes>
          <leafValues>
            2.4143584072589874e-01 -4.3735626339912415e-01</leafValues></_>
        <_>
          <internalNodes>
            0 -1 17 -2.3610058426856995e-01</internalNodes>
          <leafValues>
            -7.2384601831436157e-01 1.5094910562038422e-01</leafValues></_>
        <_>
          <internalNodes>
            0 -1 31 9.5635396428406239e-04</internalNodes>
          <leafValues>
            1.8262831866741180e-01 -5.8385449647903442e-01</leafValues></_>
        <_>
          <internalNodes>
            0 -1 66 2.9768420063192025e-05</internalNodes>
          <leafValues>
            -3.6032152175903320e-01 3.6866104602813721e-01</leafValues></_>
        <_>
          <internalNodes>
            0 -1 64 -8.0468496889807284e-05</internalNodes>
          <leafValues>
            3.2591629028320313e-01 -3.3276125788688660e-01</leafValues></_></weakClassifiers></_>
    <!-- stage 6 -->
    <_>
      <maxWeakCount>10</maxWeakCount>
      <stageThreshold>-1.9339283704757690e+00</stageThreshold>
      <weakClassifiers>
        <_>
          <internalNodes>
            0 -1 97 2.7354046702384949e-02</internalNodes>
          <leafValues>
            -8.0180180072784424e-01 1.</leafValues></_>
        <_>
          <internalNodes>
            0 -1 63 -4.4848835095763206e-03</internalNodes>
          <leafValues>
            6.0735762119293213e-01 -4.0650776028633118e-01</leafValues></_>
        <_>
          <internalNodes>
            0 -1 105 9.2721683904528618e-04</internalNodes>
          <leafValues>
            -3.5130709409713745e-01 3.6082640290260315e-01</leafValues></_>
        <_>
          <internalNodes>
            0 -1 41 8.7762216571718454e-04</internalNodes>
          <leafValues>
            1.2557373940944672e-01 -8.8964623212814331e-01</leafValues></_>
        <_>
          <internalNodes>
            0 -1 49 -5.6455004960298538e-03</internalNodes>
          <leafValues>
            5.6418293714523315e-01 -2.0489829778671265e-01</leafValues></_>
        <_>
          <internalNodes>
            0 -1 108 -3.6074530333280563e-02</internalNodes>
          <leafValues>
            7.0088648796081543e-01 -1.7083662748336792e-01</leafValues></_>
        <_>
          <internalNodes>
            0 -1 48 3.2138882670551538e-03</internalNodes>
          <leafValues>
            -3.3591276407241821e-01 2.9859194159507751e-01</leafValues></_>
        <_>
          <internalNodes>
            0 -1 123 2.1951872622594237e-04</internalNodes>
          <leafValues>
            1.6883824765682220e-01 -5.6481140851974487e-01</leafValues></_>
        <_>
          <internalNodes>
            0 -1 57 2.2245119325816631e-03</internalNodes>
          <leafValues>
            -3.0927076935768127e-01 3.4577721357345581e-01</leafValues></_>
        <_>
          <internalNodes>
            0 -1 79 1.1808581650257111e-01</internalNodes>
          <leafValues>
            -3.5993874073028564e-01 3.6975830793380737e-01</leafValues></_></weakClassifiers></_>
    <!-- stage 7 -->
    <_>
      <maxWeakCount>10</maxWeakCount>
      <stageThreshold>-1.7850996255874634e+00</stageThreshold>
      <weakClassifiers>
        <_>
          <internalNodes>
            0 -1 117 -3.9363145828247070e-02</internalNodes>
          <leafValues>
            8.8888889551162720e-01 -8.0324912071228027e-01</leafValues></_>
        <_>
          <internalNodes>
            0 -1 95 -1.0407244786620140e-02</internalNodes>
          <leafValues>
            5.4593038558959961e-01 -4.0930560231208801e-01</leafValues></_>
        <_>
          <internalNodes>
            0 -1 87 2.9290412203408778e-04</internalNodes>
          <leafValues>
            1.5485347807407379e-01 -6.5342867374420166e-01</leafValues></_>
        <_>
          <internalNodes>
            0 -1 106 7.5394270243123174e-04</internalNodes>
          <leafValues>
            -3.2571837306022644e-01 2.7897512912750244e-01</leafValues></_>
        <_>
          <internalNodes>
            0 -1 23 -5.2412752993404865e-03</internalNodes>
          <leafValues>
            -9.8317754268646240e-01 1.2944750487804413e-01</leafValues></_>
        <_>
          <internalNodes>
            0 -1 6 -2.1417038806248456e-04</internalNodes>
          <leafValues>
            -5.4499155282974243e-01 1.3578410446643829e-01</leafValues></_>
        <_>
          <internalNodes>
            0 -1 67 -9.6994917839765549e-03</internalNodes>
          <leafValues>
            3.5135060548782349e-01 -2.9229333996772766e-01</leafValues></_>
        <_>
          <internalNodes>
            0 -1 99 9.0402299538254738e-03</internalNodes>
          <leafValues>
            -2.7354887127876282e-01 3.9920070767402649e-01</leafValues></_>
        <_>
          <internalNodes>
            0 -1 9 2.4389391764998436e-03</internalNodes>
          <leafValues>
            1.8667289614677429e-01 -5.0565868616104126e-01</leafValues></_>
        <_>
          <internalNodes>
            0 -1 90 -4.2693791911005974e-03</internalNodes>
          <leafValues>
            4.4282296299934387e-01 -2.5061058998107910e-01</leafValues></_></weakClassifiers></_>
    <!-- stage 8 -->
    <_>
      <maxWeakCount>11</maxWeakCount>
      <stageThreshold>-1.8530856370925903e+00</stageThreshold>
      <weakClassifiers>
        <_>
          <internalNodes>
            0 -1 97 2.6509268209338188e-02</internalNodes>
          <leafValues>
            -8.0180180072784424e-01 1.</leafValues></_>
        <_>
          <internalNodes>
            0 -1 36 -1.1510689742863178e-02</internalNodes>
          <leafValues>
            1.2920810282230377e-01 -5.1195967197418213e-01</leafValues></_>
        <_>
          <internalNodes>
            0 -1 5 -6.0530477203428745e-03</internalNodes>
          <leafValues>
            3.5711726546287537e-01 -2.9007232189178467e-01</leafValues></_>
        <_>
          <internalNodes>
            0 -1 16 -3.5330456739757210e-05</internalNodes>
          <leafValues>
            2.5642362236976624e-01 -3.5854771733283997e-01</leafValues></_>
        <_>
          <internalNodes>
            0 -1 26 3.0474027153104544e-04</internalNodes>
          <leafValues>
            1.9355857372283936e-01 -5.5284261703491211e-01</leafValues></_>
        <_>
          <internalNodes>
            0 -1 35 1.1521868407726288e-02</internalNodes>
          <leafValues>
            -3.2503512501716614e-01 3.3820727467536926e-01</leafValues></_>
        <_>
          <internalNodes>
            0 -1 83 1.7331674695014954e-02</internalNodes>
          <leafValues>
            -1.5053822100162506e-01 8.1040233373641968e-01</leafValues></_>
        <_>
          <internalNodes>
            0 -1 61 5.4390482604503632e-02</internalNodes>
          <leafValues>
            -1.9003179669380188e-01 5.1014339923858643e-01</leafValues></_>
        <_>
          <internalNodes>
            0 -1 127 -2.7231709100306034e-04</internalNodes>
          <leafValues>
            -6.3766026496887207e-01 2.1946533024311066e-01</leafValues></_>
        <_>
          <internalNodes>
            0 -1 129 3.4655516501516104e-03</internalNodes>
          <leafValues>
            6.8246357142925262e-02 -1.</leafValues></_>
        <_>
          <internalNodes>
            0 -1 47 -9.4363577663898468e-03</internalNodes>
          <leafValues>
            3.1040272116661072e-01 -3.2134050130844116e-01</leafValues></_></weakClassifiers></_>
    <!-- stage 9 -->
    <_>
      <maxWeakCount>9</maxWeakCount>
      <stageThreshold>-1.5302140712738037e+00</stageThreshold>
      <weakClassifiers>
        <_>
          <internalNodes>
            0 -1 76 7.0670992136001587e-02</internalNodes>
          <leafValues>
            -8.0909091234207153e-01 6.1538463830947876e-01</leafValues></_>
        <_>
          <internalNodes>
            0 -1 119 -1.9107861444354057e-02</internalNodes>
          <leafValues>
            7.8574305772781372e-01 -3.8359299302101135e-01</leafValues></_>
        <_>
          <internalNodes>
            0 -1 45 -3.1648072763346136e-04</internalNodes>
          <leafValues>
            2.8986588120460510e-01 -3.5604557394981384e-01</leafValues></_>
        <_>
          <internalNodes>
            0 -1 14 -8.5812126053497195e-04</internalNodes>
          <leafValues>
            -7.9191380739212036e-01 1.4333380758762360e-01</leafValues></_>
        <_>
          <internalNodes>
            0 -1 107 -1.1083967983722687e-03</internalNodes>
          <leafValues>
            -7.4045127630233765e-01 1.2409023940563202e-01</leafValues></_>
        <_>
          <internalNodes>
            0 -1 34 6.1447203159332275e-01</internalNodes>
          <leafValues>
            1.2931187450885773e-01 -9.3597042560577393e-01</leafValues></_>
        <_>
          <internalNodes>
            0 -1 81 -1.2877540662884712e-02</internalNodes>
          <leafValues>
            -7.3004233837127686e-01 9.8239608108997345e-02</leafValues></_>
        <_>
          <internalNodes>
            0 -1 88 -2.1960859885439277e-04</internalNodes>
          <leafValues>
            2.8794023394584656e-01 -3.6187946796417236e-01</leafValues></_>
        <_>
          <internalNodes>
            0 -1 24 -5.7540625333786011e-02</internalNodes>
          <leafValues>
            -1. 1.0404946655035019e-01</leafValues></_></weakClassifiers></_>
    <!-- stage 10 -->
    <_>
      <maxWeakCount>9</maxWeakCount>
      <stageThreshold>-1.5762995481491089e+00</stageThreshold>
      <weakClassifiers>
        <_>
          <internalNodes>
            0 -1 70 7.7271670103073120e-02</internalNodes>
          <leafValues>
            -8.0762249231338501e-01 6.6666668653488159e-01</leafValues></_>
        <_>
          <internalNodes>
            0 -1 101 -3.8084934931248426e-03</internalNodes>
          <leafValues>
            5.2820706367492676e-01 -4.1346445679664612e-01</leafValues></_>
        <_>
          <internalNodes>
            0 -1 21 -2.5578469038009644e-01</internalNodes>
          <leafValues>
            -9.2965954542160034e-01 9.1097444295883179e-02</leafValues></_>
        <_>
          <internalNodes>
            0 -1 56 6.2649801839143038e-04</internalNodes>
          <leafValues>
            1.5341106057167053e-01 -7.9584693908691406e-01</leafValues></_>
        <_>
          <internalNodes>
            0 -1 104 -2.6237512938678265e-03</internalNodes>
          <leafValues>
            -8.2602912187576294e-01 1.0676220804452896e-01</leafValues></_>
        <_>
          <internalNodes>
            0 -1 72 3.4841611050069332e-03</internalNodes>
          <leafValues>
            -1.7953793704509735e-01 8.0635833740234375e-01</leafValues></_>
        <_>
          <internalNodes>
            0 -1 8 -1.4444568660110235e-03</internalNodes>
          <leafValues>
            -6.8357068300247192e-01 2.1501541137695313e-01</leafValues></_>
        <_>
          <internalNodes>
            0 -1 33 9.3424711376428604e-03</internalNodes>
          <leafValues>
            2.3029614984989166e-01 -4.6944874525070190e-01</leafValues></_>
        <_>
          <internalNodes>
            0 -1 93 -2.3390376009047031e-03</internalNodes>
          <leafValues>
            3.7271231412887573e-01 -2.7251195907592773e-01</leafValues></_></weakClassifiers></_>
    <!-- stage 11 -->
    <_>
      <maxWeakCount>12</maxWeakCount>
      <stageThreshold>-1.6344873905181885e+00</stageThreshold>
      <weakClassifiers>
        <_>
          <internalNodes>
            0 -1 97 1.7914094030857086e-02</internalNodes>
          <leafValues>
            -8.0744779109954834e-01 6.0000002384185791e-01</leafValues></_>
        <_>
          <internalNodes>
            0 -1 89 -7.5217504054307938e-03</internalNodes>
          <leafValues>
            6.2463474273681641e-01 -3.8330727815628052e-01</leafValues></_>
        <_>
          <internalNodes>
            0 -1 125 2.5254942011088133e-04</internalNodes>
          <leafValues>
            1.8028143048286438e-01 -5.8909827470779419e-01</leafValues></_>
        <_>
          <internalNodes>
            0 -1 69 -3.7510828115046024e-03</internalNodes>
          <leafValues>
            5.6185334920883179e-01 -1.8477876484394073e-01</leafValues></_>
        <_>
          <internalNodes>
            0 -1 12 -2.8365030884742737e-03</internalNodes>
          <leafValues>
            -6.7621618509292603e-01 1.5681217610836029e-01</leafValues></_>
        <_>
          <internalNodes>
            0 -1 40 -1.9151959568262100e-02</internalNodes>
          <leafValues>
            3.6648327112197876e-01 -2.7913033962249756e-01</leafValues></_>
        <_>
          <internalNodes>
            0 -1 62 2.5126223918050528e-03</internalNodes>
          <leafValues>
            -1.9778127968311310e-01 5.6278401613235474e-01</leafValues></_>
        <_>
          <internalNodes>
            0 -1 60 4.6551162376999855e-03</internalNodes>
          <leafValues>
            1.5092182159423828e-01 -6.2643891572952271e-01</leafValues></_>
        <_>
          <internalNodes>
            0 -1 131 8.6496071889996529e-03</internalNodes>
          <leafValues>
            -2.4941323697566986e-01 4.0175515413284302e-01</leafValues></_>
        <_>
          <internalNodes>
            0 -1 122 -2.4496566038578749e-04</internalNodes>
          <leafValues>
            -5.2638524770736694e-01 2.0984327793121338e-01</leafValues></_>
        <_>
          <internalNodes>
            0 -1 126 -9.8925130441784859e-03</internalNodes>
          <leafValues>
            4.1812241077423096e-01 -2.4472130835056305e-01</leafValues></_>
        <_>
          <internalNodes>
            0 -1 85 8.1990071339532733e-04</internalNodes>
          <leafValues>
            1.3800004124641418e-01 -7.4826419353485107e-01</leafValues></_></weakClassifiers></_>
    <!-- stage 12 -->
    <_>
      <maxWeakCount>8</maxWeakCount>
      <stageThreshold>-1.4612060785293579e+00</stageThreshold>
      <weakClassifiers>
        <_>
          <internalNodes>
            0 -1 114 7.7897957526147366e-03</internalNodes>
          <leafValues>
            -8.0650997161865234e-01 8.9999997615814209e-01</leafValues></_>
        <_>
          <internalNodes>
            0 -1 102 2.7699829079210758e-03</internalNodes>
          <leafValues>
            -4.0212467312812805e-01 7.5649225711822510e-01</leafValues></_>
        <_>
          <internalNodes>
            0 -1 71 -1.2801147022400983e-05</internalNodes>
          <leafValues>
            3.4892728924751282e-01 -3.2185018062591553e-01</leafValues></_>
        <_>
          <internalNodes>
            0 -1 91 -1.4761032070964575e-03</internalNodes>
          <leafValues>
            6.2306964397430420e-01 -1.6433337330818176e-01</leafValues></_>
        <_>
          <internalNodes>
            0 -1 50 2.3559005057904869e-04</internalNodes>
          <leafValues>
            2.3285692930221558e-01 -4.8413741588592529e-01</leafValues></_>
        <_>
          <internalNodes>
            0 -1 19 4.7720193862915039e-02</internalNodes>
          <leafValues>
            -1.4178657531738281e-01 7.4181604385375977e-01</leafValues></_>
        <_>
          <internalNodes>
            0 -1 13 -1.8323664553463459e-03</internalNodes>
          <leafValues>
            6.2168252468109131e-01 -1.9952079653739929e-01</leafValues></_>
        <_>
          <internalNodes>
            0 -1 121 -1.2801147022400983e-05</internalNodes>
          <leafValues>
            4.1260984539985657e-01 -3.2871490716934204e-01</leafValues></_></weakClassifiers></_>
    <!-- stage 13 -->
    <_>
      <maxWeakCount>7</maxWeakCount>
      <stageThreshold>-1.7106988430023193e+00</stageThreshold>
      <weakClassifiers>
        <_>
          <internalNodes>
            0 -1 28 -1.8935326486825943e-02</internalNodes>
          <leafValues>
            1. -8.1818181276321411e-01</leafValues></_>
        <_>
          <internalNodes>
            0 -1 68 1.9542510807514191e-01</internalNodes>
          <leafValues>
            -4.3771031498908997e-01 7.9081165790557861e-01</leafValues></_>
        <_>
          <internalNodes>
            0 -1 120 -1.7384191742166877e-03</internalNodes>
          <leafValues>
            3.9163649082183838e-01 -2.9562181234359741e-01</leafValues></_>
        <_>
          <internalNodes>
            0 -1 84 1.4331703074276447e-02</internalNodes>
          <leafValues>
            -2.9179626703262329e-01 4.8567003011703491e-01</leafValues></_>
        <_>
          <internalNodes>
            0 -1 1 2.8763754293322563e-02</internalNodes>
          <leafValues>
            -1.5821041166782379e-01 8.4167730808258057e-01</leafValues></_>
        <_>
          <internalNodes>
            0 -1 53 2.0076896995306015e-02</internalNodes>
          <leafValues>
            -4.1117629408836365e-01 3.2075670361518860e-01</leafValues></_>
        <_>
          <internalNodes>
            0 -1 0 -1.1772615835070610e-03</internalNodes>
          <leafValues>
            4.4171616435050964e-01 -2.9788970947265625e-01</leafValues></_></weakClassifiers></_>
    <!-- stage 14 -->
    <_>
      <maxWeakCount>5</maxWeakCount>
      <stageThreshold>-1.3830822706222534e+00</stageThreshold>
      <weakClassifiers>
        <_>
          <internalNodes>
            0 -1 74 5.8225523680448532e-03</internalNodes>
          <leafValues>
            -8.2815355062484741e-01 1.</leafValues></_>
        <_>
          <internalNodes>
            0 -1 44 -2.0023517310619354e-02</internalNodes>
          <leafValues>
            3.2968813180923462e-01 -6.0024279356002808e-01</leafValues></_>
        <_>
          <internalNodes>
            0 -1 7 7.9849399626255035e-03</internalNodes>
          <leafValues>
            2.9944887757301331e-01 -6.6274231672286987e-01</leafValues></_>
        <_>
          <internalNodes>
            0 -1 43 -4.4974782213103026e-05</internalNodes>
          <leafValues>
            5.8469337224960327e-01 -4.3532606959342957e-01</leafValues></_>
        <_>
          <internalNodes>
            0 -1 54 -2.0383026450872421e-02</internalNodes>
          <leafValues>
            -9.3497991561889648e-01 2.1345157921314240e-01</leafValues></_></weakClassifiers></_>
    <!-- stage 15 -->
    <_>
      <maxWeakCount>5</maxWeakCount>
      <stageThreshold>-1.4232496023178101e+00</stageThreshold>
      <weakClassifiers>
        <_>
          <internalNodes>
            0 -1 22 -3.7552200257778168e-02</internalNodes>
          <leafValues>
            1. -8.3992642164230347e-01</leafValues></_>
        <_>
          <internalNodes>
            0 -1 100 -3.8256697356700897e-02</internalNodes>
          <leafValues>
            2.7203398942947388e-01 -6.7352473735809326e-01</leafValues></_>
        <_>
          <internalNodes>
            0 -1 86 2.1779059898108244e-04</internalNodes>
          <leafValues>
            5.5488610267639160e-01 -5.0403094291687012e-01</leafValues></_>
        <_>
          <internalNodes>
            0 -1 30 9.7917616367340088e-03</internalNodes>
          <leafValues>
            4.1955870389938354e-01 -6.7332166433334351e-01</leafValues></_>
        <_>
          <internalNodes>
            0 -1 116 1.6040005721151829e-03</internalNodes>
          <leafValues>
            4.1029104590415955e-01 -7.7088499069213867e-01</leafValues></_></weakClassifiers></_>
    <!-- stage 16 -->
    <_>
      <maxWeakCount>4</maxWeakCount>
      <stageThreshold>-1.3508311510086060e+00</stageThreshold>
      <weakClassifiers>
        <_>
          <internalNodes>
            0 -1 43 -1.6544299796805717e-05</internalNodes>
          <leafValues>
            1. -8.9933520555496216e-01</leafValues></_>
        <_>
          <internalNodes>
            0 -1 103 -4.6516284346580505e-03</internalNodes>
          <leafValues>
            1. -7.4672698974609375e-01</leafValues></_>
        <_>
          <internalNodes>
            0 -1 4 5.3586456924676895e-03</internalNodes>
          <leafValues>
            7.0862829685211182e-01 -5.9781092405319214e-01</leafValues></_>
        <_>
          <internalNodes>
            0 -1 75 7.8550961916334927e-05</internalNodes>
          <leafValues>
            -4.1339725255966187e-01 9.0585166215896606e-01</leafValues></_></weakClassifiers></_></stages>
  <features>
    <_>
      <rects>
        <_>
          0 1 2 12 -1.</_>
        <_>
          0 1 1 6 2.</_>
        <_>
          1 7 1 6 2.</_></rects>
      <tilted>0</tilted></_>
    <_>
      <rects>
        <_>
          0 1 12 2 -1.</_>
        <_>
          6 1 6 2 2.</_></rects>
      <tilted>0</tilted></_>
    <_>
      <rects>
        <_>
          0 3 4 1 -1.</_>
        <_>
          2 3 2 1 2.</_></rects>
      <tilted>0</tilted></_>
    <_>
      <rects>
        <_>
          0 3 24 8 -1.</_>
        <_>
          0 7 24 4 2.</_></rects>
      <tilted>0</tilted></_>
    <_>
      <rects>
        <_>
          0 4 10 7 -1.</_>
        <_>
          5 4 5 7 2.</_></rects>
      <tilted>0</tilted></_>
    <_>
      <rects>
        <_>
          0 4 15 9 -1.</_>
        <_>
          0 7 15 3 3.</_></rects>
      <tilted>0</tilted></_>
    <_>
      <rects>
        <_>
          0 6 2 3 -1.</_>
        <_>
          1 6 1 3 2.</_></rects>
      <tilted>0</tilted></_>
    <_>
      <rects>
        <_>
          0 6 12 4 -1.</_>
        <_>
          0 8 12 2 2.</_></rects>
      <tilted>0</tilted></_>
    <_>
      <rects>
        <_>
          0 7 2 7 -1.</_>
        <_>
          1 7 1 7 2.</_></rects>
      <tilted>0</tilted></_>
    <_>
      <rects>
        <_>
          0 8 4 3 -1.</_>
        <_>
          2 8 2 3 2.</_></rects>
      <tilted>0</tilted></_>
    <_>
      <rects>
        <_>
          0 8 6 1 -1.</_>
        <_>
          3 8 3 1 2.</_></rects>
      <tilted>0</tilted></_>
    <_>
      <rects>
        <_>
          0 8 21 12 -1.</_>
        <_>
          0 12 21 4 3.</_></rects>
      <tilted>0</tilted></_>
    <_>
      <rects>
        <_>
          0 11 12 6 -1.</_>
        <_>
          0 13 12 2 3.</_></rects>
      <tilted>0</tilted></_>
    <_>
      <rects>
        <_>
          0 12 22 3 -1.</_>
        <_>
          0 13 22 1 3.</_></rects>
      <tilted>0</tilted></_>
    <_>
      <rects>
        <_>
          0 15 4 2 -1.</_>
        <_>
          0 15 2 1 2.</_>
        <_>
          2 16 2 1 2.</_></rects>
      <tilted>0</tilted></_>
    <_>
      <rects>
        <_>
          0 18 6 1 -1.</_>
        <_>
          3 18 3 1 2.</_></rects>
      <tilted>0</tilted></_>
    <_>
      <rects>
        <_>
          0 22 4 2 -1.</_>
        <_>
          0 23 4 1 2.</_></rects>
      <tilted>0</tilted></_>
    <_>
      <rects>
        <_>
          1 1 23 22 -1.</_>
        <_>
          1 12 23 11 2.</_></rects>
      <tilted>0</tilted></_>
    <_>
      <rects>
        <_>
          1 6 15 1 -1.</_>
        <_>
          6 6 5 1 3.</_></rects>
      <tilted>0</tilted></_>
    <_>
      <rects>
        <_>
          1 7 5 12 -1.</_>
        <_>
          1 11 5 4 3.</_></rects>
      <tilted>0</tilted></_>
    <_>
      <rects>
        <_>
          1 8 12 6 -1.</_>
        <_>
          5 8 4 6 3.</_></rects>
      <tilted>0</tilted></_>
    <_>
      <rects>
        <_>
          1 10 23 14 -1.</_>
        <_>
          1 17 23 7 2.</_></rects>
      <tilted>0</tilted></_>
    <_>
      <rects>
        <_>
          1 11 4 12 -1.</_>
        <_>
          1 17 4 6 2.</_></rects>
      <tilted>0</tilted></_>
    <_>
      <rects>
        <_>
          1 20 11 2 -1.</_>
        <_>
          1 21 11 1 2.</_></rects>
      <tilted>0</tilted></_>
    <_>
      <rects>
        <_>
          2 1 18 3 -1.</_>
        <_>
          11 1 9 3 2.</_></rects>
      <tilted>0</tilted></_>
    <_>
      <rects>
        <_>
          2 3 12 2 -1.</_>
        <_>
          2 4 12 1 2.</_></rects>
      <tilted>0</tilted></_>
    <_>
      <rects>
        <_>
          2 7 1 4 -1.</_>
        <_>
          2 9 1 2 2.</_></rects>
      <tilted>0</tilted></_>
    <_>
      <rects>
        <_>
          2 7 22 12 -1.</_>
        <_>
          2 7 11 6 2.</_>
        <_>
          13 13 11 6 2.</_></rects>
      <tilted>0</tilted></_>
    <_>
      <rects>
        <_>
          2 8 4 5 -1.</_>
        <_>
          4 8 2 5 2.</_></rects>
      <tilted>0</tilted></_>
    <_>
      <rects>
        <_>
          2 13 14 8 -1.</_>
        <_>
          2 17 14 4 2.</_></rects>
      <tilted>0</tilted></_>
    <_>
      <rects>
        <_>
          2 15 12 5 -1.</_>
        <_>
          6 15 4 5 3.</_></rects>
      <tilted>0</tilted></_>
    <_>
      <rects>
        <_>
          2 19 3 2 -1.</_>
        <_>
          2 20 3 1 2.</_></rects>
      <tilted>0</tilted></_>
    <_>
      <rects>
        <_>
          2 23 14 1 -1.</_>
        <_>
          9 23 7 1 2.</_></rects>
      <tilted>0</tilted></_>
    <_>
      <rects>
        <_>
          3 0 6 20 -1.</_>
        <_>
          3 0 3 10 2.</_>
        <_>
          6 10 3 10 2.</_></rects>
      <tilted>0</tilted></_>
    <_>
      <rects>
        <_>
          3 0 20 24 -1.</_>
        <_>
          13 0 10 24 2.</_></rects>
      <tilted>0</tilted></_>
    <_>
      <rects>
        <_>
          3 0 11 8 -1.</_>
        <_>
          3 4 11 4 2.</_></rects>
      <tilted>0</tilted></_>
    <_>
      <rects>
        <_>
          3 6 1 18 -1.</_>
        <_>
          3 15 1 9 2.</_></rects>
      <tilted>0</tilted></_>
    <_>
      <rects>
        <_>
          3 7 1 2 -1.</_>
        <_>
          3 8 1 1 2.</_></rects>
      <tilted>0</tilted></_>
    <_>
      <rects>
        <_>
          3 7 9 9 -1.</_>
        <_>
          6 7 3 9 3.</_></rects>
      <tilted>0</tilted></_>
    <_>
      <rects>
        <_>
          3 12 2 12 -1.</_>
        <_>
          3 16 2 4 3.</_></rects>
      <tilted>0</tilted></_>
    <_>
      <rects>
        <_>
          3 12 10 10 -1.</_>
        <_>
          3 12 5 5 2.</_>
        <_>
          8 17 5 5 2.</_></rects>
      <tilted>0</tilted></_>
    <_>
      <rects>
        <_>
          3 16 4 2 -1.</_>
        <_>
          3 17 4 1 2.</_></rects>
      <tilted>0</tilted></_>
    <_>
      <rects>
        <_>
          3 19 1 2 -1.</_>
        <_>
          3 20 1 1 2.</_></rects>
      <tilted>0</tilted></_>
    <_>
      <rects>
        <_>
          3 22 3 1 -1.</_>
        <_>
          4 22 1 1 3.</_></rects>
      <tilted>0</tilted></_>
    <_>
      <rects>
        <_>
          4 0 20 3 -1.</_>
        <_>
          14 0 10 3 2.</_></rects>
      <tilted>0</tilted></_>
    <_>
      <rects>
        <_>
          4 1 2 8 -1.</_>
        <_>
          4 1 1 4 2.</_>
        <_>
          5 5 1 4 2.</_></rects>
      <tilted>0</tilted></_>
    <_>
      <rects>
        <_>
          4 1 8 10 -1.</_>
        <_>
          4 6 8 5 2.</_></rects>
      <tilted>0</tilted></_>
    <_>
      <rects>
        <_>
          4 4 12 8 -1.</_>
        <_>
          4 4 6 4 2.</_>
        <_>
          10 8 6 4 2.</_></rects>
      <tilted>0</tilted></_>
    <_>
      <rects>
        <_>
          4 5 5 8 -1.</_>
        <_>
          4 9 5 4 2.</_></rects>
      <tilted>0</tilted></_>
    <_>
      <rects>
        <_>
          4 6 1 18 -1.</_>
        <_>
          4 12 1 6 3.</_></rects>
      <tilted>0</tilted></_>
    <_>
      <rects>
        <_>
          4 11 1 3 -1.</_>
        <_>
          4 12 1 1 3.</_></rects>
      <tilted>0</tilted></_>
    <_>
      <rects>
        <_>
          5 0 9 4 -1.</_>
        <_>
          5 2 9 2 2.</_></rects>
      <tilted>0</tilted></_>
    <_>
      <rects>
        <_>
          5 2 15 12 -1.</_>
        <_>
          10 2 5 12 3.</_></rects>
      <tilted>0</tilted></_>
    <_>
      <rects>
        <_>
          5 3 19 10 -1.</_>
        <_>
          5 8 19 5 2.</_></rects>
      <tilted>0</tilted></_>
    <_>
      <rects>
        <_>
          5 4 8 4 -1.</_>
        <_>
          9 4 4 4 2.</_></rects>
      <tilted>0</tilted></_>
    <_>
      <rects>
        <_>
          5 14 17 10 -1.</_>
        <_>
          5 19 17 5 2.</_></rects>
      <tilted>0</tilted></_>
    <_>
      <rects>
        <_>
          6 0 2 1 -1.</_>
        <_>
          7 0 1 1 2.</_></rects>
      <tilted>0</tilted></_>
    <_>
      <rects>
        <_>
          6 0 10 6 -1.</_>
        <_>
          6 2 10 2 3.</_></rects>
      <tilted>0</tilted></_>
    <_>
      <rects>
        <_>
          6 4 15 8 -1.</_>
        <_>
          11 4 5 8 3.</_></rects>
      <tilted>0</tilted></_>
    <_>
      <rects>
        <_>
          6 5 15 7 -1.</_>
        <_>
          11 5 5 7 3.</_></rects>
      <tilted>0</tilted></_>
    <_>
      <rects>
        <_>
          6 8 1 8 -1.</_>
        <_>
          6 12 1 4 2.</_></rects>
      <tilted>0</tilted></_>
    <_>
      <rects>
        <_>
          6 9 15 3 -1.</_>
        <_>
          11 9 5 3 3.</_></rects>
      <tilted>0</tilted></_>
    <_>
      <rects>
        <_>
          6 10 2 12 -1.</_>
        <_>
          6 10 1 6 2.</_>
        <_>
          7 16 1 6 2.</_></rects>
      <tilted>0</tilted></_>
    <_>
      <rects>
        <_>
          6 11 3 2 -1.</_>
        <_>
          7 11 1 2 3.</_></rects>
      <tilted>0</tilted></_>
    <_>
      <rects>
        <_>
          6 20 3 1 -1.</_>
        <_>
          7 20 1 1 3.</_></rects>
      <tilted>0</tilted></_>
    <_>
      <rects>
        <_>
          7 11 2 6 -1.</_>
        <_>
          8 11 1 6 2.</_></rects>
      <tilted>0</tilted></_>
    <_>
      <rects>
        <_>
          7 22 2 2 -1.</_>
        <_>
          7 22 1 1 2.</_>
        <_>
          8 23 1 1 2.</_></rects>
      <tilted>0</tilted></_>
    <_>
      <rects>
        <_>
          8 2 6 12 -1.</_>
        <_>
          8 2 3 6 2.</_>
        <_>
          11 8 3 6 2.</_></rects>
      <tilted>0</tilted></_>
    <_>
      <rects>
        <_>
          8 4 9 20 -1.</_>
        <_>
          11 4 3 20 3.</_></rects>
      <tilted>0</tilted></_>
    <_>
      <rects>
        <_>
          8 7 2 8 -1.</_>
        <_>
          8 7 1 4 2.</_>
        <_>
          9 11 1 4 2.</_></rects>
      <tilted>0</tilted></_>
    <_>
      <rects>
        <_>
          8 8 4 14 -1.</_>
        <_>
          10 8 2 14 2.</_></rects>
      <tilted>0</tilted></_>
    <_>
      <rects>
        <_>
          8 11 2 2 -1.</_>
        <_>
          8 11 1 1 2.</_>
        <_>
          9 12 1 1 2.</_></rects>
      <tilted>0</tilted></_>
    <_>
      <rects>
        <_>
          8 11 3 2 -1.</_>
        <_>
          9 11 1 2 3.</_></rects>
      <tilted>0</tilted></_>
    <_>
      <rects>
        <_>
          8 18 2 2 -1.</_>
        <_>
          8 18 1 1 2.</_>
        <_>
          9 19 1 1 2.</_></rects>
      <tilted>0</tilted></_>
    <_>
      <rects>
        <_>
          9 1 2 12 -1.</_>
        <_>
          9 1 1 6 2.</_>
        <_>
          10 7 1 6 2.</_></rects>
      <tilted>0</tilted></_>
    <_>
      <rects>
        <_>
          9 2 1 2 -1.</_>
        <_>
          9 3 1 1 2.</_></rects>
      <tilted>0</tilted></_>
    <_>
      <rects>
        <_>
          10 0 12 3 -1.</_>
        <_>
          14 0 4 3 3.</_></rects>
      <tilted>0</tilted></_>
    <_>
      <rects>
        <_>
          10 1 6 21 -1.</_>
        <_>
          13 1 3 21 2.</_></rects>
      <tilted>0</tilted></_>
    <_>
      <rects>
        <_>
          10 8 14 12 -1.</_>
        <_>
          10 8 7 6 2.</_>
        <_>
          17 14 7 6 2.</_></rects>
      <tilted>0</tilted></_>
    <_>
      <rects>
        <_>
          11 0 12 24 -1.</_>
        <_>
          11 8 12 8 3.</_></rects>
      <tilted>0</tilted></_>
    <_>
      <rects>
        <_>
          11 1 6 4 -1.</_>
        <_>
          13 1 2 4 3.</_></rects>
      <tilted>0</tilted></_>
    <_>
      <rects>
        <_>
          11 5 4 16 -1.</_>
        <_>
          11 5 2 8 2.</_>
        <_>
          13 13 2 8 2.</_></rects>
      <tilted>0</tilted></_>
    <_>
      <rects>
        <_>
          11 9 3 15 -1.</_>
        <_>
          12 9 1 15 3.</_></rects>
      <tilted>0</tilted></_>
    <_>
      <rects>
        <_>
          11 12 7 4 -1.</_>
        <_>
          11 14 7 2 2.</_></rects>
      <tilted>0</tilted></_>
    <_>
      <rects>
        <_>
          12 1 4 14 -1.</_>
        <_>
          14 1 2 14 2.</_></rects>
      <tilted>0</tilted></_>
    <_>
      <rects>
        <_>
          12 4 2 3 -1.</_>
        <_>
          12 5 2 1 3.</_></rects>
      <tilted>0</tilted></_>
    <_>
      <rects>
        <_>
          12 5 3 3 -1.</_>
        <_>
          12 6 3 1 3.</_></rects>
      <tilted>0</tilted></_>
    <_>
      <rects>
        <_>
          12 9 1 2 -1.</_>
        <_>
          12 10 1 1 2.</_></rects>
      <tilted>0</tilted></_>
    <_>
      <rects>
        <_>
          12 10 2 6 -1.</_>
        <_>
          12 10 1 3 2.</_>
        <_>
          13 13 1 3 2.</_></rects>
      <tilted>0</tilted></_>
    <_>
      <rects>
        <_>
          12 16 3 7 -1.</_>
        <_>
          13 16 1 7 3.</_></rects>
      <tilted>0</tilted></_>
    <_>
      <rects>
        <_>
          12 16 9 1 -1.</_>
        <_>
          15 16 3 1 3.</_></rects>
      <tilted>0</tilted></_>
    <_>
      <rects>
        <_>
          12 21 3 2 -1.</_>
        <_>
          13 21 1 2 3.</_></rects>
      <tilted>0</tilted></_>
    <_>
      <rects>
        <_>
          13 1 9 14 -1.</_>
        <_>
          16 1 3 14 3.</_></rects>
      <tilted>0</tilted></_>
    <_>
      <rects>
        <_>
          13 4 4 12 -1.</_>
        <_>
          13 8 4 4 3.</_></rects>
      <tilted>0</tilted></_>
    <_>
      <rects>
        <_>
          13 8 11 6 -1.</_>
        <_>
          13 10 11 2 3.</_></rects>
      <tilted>0</tilted></_>
    <_>
      <rects>
        <_>
          13 13 2 11 -1.</_>
        <_>
          14 13 1 11 2.</_></rects>
      <tilted>0</tilted></_>
    <_>
      <rects>
        <_>
          13 15 4 7 -1.</_>
        <_>
          15 15 2 7 2.</_></rects>
      <tilted>0</tilted></_>
    <_>
      <rects>
        <_>
          13 23 9 1 -1.</_>
        <_>
          16 23 3 1 3.</_></rects>
      <tilted>0</tilted></_>
    <_>
      <rects>
        <_>
          14 0 10 6 -1.</_>
        <_>
          19 0 5 6 2.</_></rects>
      <tilted>0</tilted></_>
    <_>
      <rects>
        <_>
          14 1 2 12 -1.</_>
        <_>
          14 7 2 6 2.</_></rects>
      <tilted>0</tilted></_>
    <_>
      <rects>
        <_>
          14 3 10 7 -1.</_>
        <_>
          19 3 5 7 2.</_></rects>
      <tilted>0</tilted></_>
    <_>
      <rects>
        <_>
          14 20 3 3 -1.</_>
        <_>
          15 20 1 3 3.</_></rects>
      <tilted>0</tilted></_>
    <_>
      <rects>
        <_>
          14 22 4 2 -1.</_>
        <_>
          14 22 2 1 2.</_>
        <_>
          16 23 2 1 2.</_></rects>
      <tilted>0</tilted></_>
    <_>
      <rects>
        <_>
          15 0 5 6 -1.</_>
        <_>
          15 3 5 3 2.</_></rects>
      <tilted>0</tilted></_>
    <_>
      <rects>
        <_>
          15 7 7 2 -1.</_>
        <_>
          15 8 7 1 2.</_></rects>
      <tilted>0</tilted></_>
    <_>
      <rects>
        <_>
          15 15 4 2 -1.</_>
        <_>
          17 15 2 2 2.</_></rects>
      <tilted>0</tilted></_>
    <_>
      <rects>
        <_>
          16 0 8 4 -1.</_>
        <_>
          16 0 4 2 2.</_>
        <_>
          20 2 4 2 2.</_></rects>
      <tilted>0</tilted></_>
    <_>
      <rects>
        <_>
          16 6 4 3 -1.</_>
        <_>
          16 7 4 1 3.</_></rects>
      <tilted>0</tilted></_>
    <_>
      <rects>
        <_>
          16 10 6 11 -1.</_>
        <_>
          18 10 2 11 3.</_></rects>
      <tilted>0</tilted></_>
    <_>
      <rects>
        <_>
          16 23 2 1 -1.</_>
        <_>
          17 23 1 1 2.</_></rects>
      <tilted>0</tilted></_>
    <_>
      <rects>
        <_>
          17 0 7 14 -1.</_>
        <_>
          17 7 7 7 2.</_></rects>
      <tilted>0</tilted></_>
    <_>
      <rects>
        <_>
          17 2 4 4 -1.</_>
        <_>
          19 2 2 4 2.</_></rects>
      <tilted>0</tilted></_>
    <_>
      <rects>
        <_>
          17 4 4 2 -1.</_>
        <_>
          17 4 2 1 2.</_>
        <_>
          19 5 2 1 2.</_></rects>
      <tilted>0</tilted></_>
    <_>
      <rects>
        <_>
          17 6 3 17 -1.</_>
        <_>
          18 6 1 17 3.</_></rects>
      <tilted>0</tilted></_>
    <_>
      <rects>
        <_>
          17 16 3 3 -1.</_>
        <_>
          18 16 1 3 3.</_></rects>
      <tilted>0</tilted></_>
    <_>
      <rects>
        <_>
          17 17 2 2 -1.</_>
        <_>
          17 17 1 1 2.</_>
        <_>
          18 18 1 1 2.</_></rects>
      <tilted>0</tilted></_>
    <_>
      <rects>
        <_>
          18 2 6 2 -1.</_>
        <_>
          18 2 3 1 2.</_>
        <_>
          21 3 3 1 2.</_></rects>
      <tilted>0</tilted></_>
    <_>
      <rects>
        <_>
          18 6 3 18 -1.</_>
        <_>
          19 6 1 18 3.</_></rects>
      <tilted>0</tilted></_>
    <_>
      <rects>
        <_>
          18 11 3 8 -1.</_>
        <_>
          19 11 1 8 3.</_></rects>
      <tilted>0</tilted></_>
    <_>
      <rects>
        <_>
          18 12 3 10 -1.</_>
        <_>
          19 12 1 10 3.</_></rects>
      <tilted>0</tilted></_>
    <_>
      <rects>
        <_>
          18 12 6 4 -1.</_>
        <_>
          18 12 3 2 2.</_>
        <_>
          21 14 3 2 2.</_></rects>
      <tilted>0</tilted></_>
    <_>
      <rects>
        <_>
          19 8 2 2 -1.</_>
        <_>
          19 8 1 1 2.</_>
        <_>
          20 9 1 1 2.</_></rects>
      <tilted>0</tilted></_>
    <_>
      <rects>
        <_>
          21 1 2 1 -1.</_>
        <_>
          22 1 1 1 2.</_></rects>
      <tilted>0</tilted></_>
    <_>
      <rects>
        <_>
          21 4 2 1 -1.</_>
        <_>
          22 4 1 1 2.</_></rects>
      <tilted>0</tilted></_>
    <_>
      <rects>
        <_>
          21 16 1 2 -1.</_>
        <_>
          21 17 1 1 2.</_></rects>
      <tilted>0</tilted></_>
    <_>
      <rects>
        <_>
          22 0 2 1 -1.</_>
        <_>
          23 0 1 1 2.</_></rects>
      <tilted>0</tilted></_>
    <_>
      <rects>
        <_>
          22 3 2 15 -1.</_>
        <_>
          22 8 2 5 3.</_></rects>
      <tilted>0</tilted></_>
    <_>
      <rects>
        <_>
          22 6 2 1 -1.</_>
        <_>
          23 6 1 1 2.</_></rects>
      <tilted>0</tilted></_>
    <_>
      <rects>
        <_>
          22 9 2 1 -1.</_>
        <_>
          23 9 1 1 2.</_></rects>
      <tilted>0</tilted></_>
    <_>
      <rects>
        <_>
          22 20 2 4 -1.</_>
        <_>
          22 22 2 2 2.</_></rects>
      <tilted>0</tilted></_>
    <_>
      <rects>
        <_>
          22 22 2 2 -1.</_>
        <_>
          23 22 1 2 2.</_></rects>
      <tilted>0</tilted></_>
    <_>
      <rects>
        <_>
          23 0 1 14 -1.</_>
        <_>
          23 7 1 7 2.</_></rects>
      <tilted>0</tilted></_></features></cascade>
</opencv_storage>
